<?xml version="1.0" encoding="ISO-8859-1"?>
<!-- This network was created in GeNIe Academic, which can be used for educational and research purposes only -->
<smile version="1.0" id="day" numsamples="10000" discsamples="10000">
	<nodes>
		<cpt id="mnth">
			<state id="s1_below_2" />
			<state id="s2_2_8" />
			<state id="s3_8_up" />
			<probabilities>0.5786666666666667 0.1386666666666667 0.2826666666666667</probabilities>
		</cpt>
		<cpt id="holiday">
			<state id="s1_below_0" />
			<state id="s2_0_up" />
			<probabilities>0.9706284153005464 0.02937158469945355</probabilities>
		</cpt>
		<cpt id="workingday">
			<state id="s1_below_0" />
			<state id="s2_0_up" />
			<parents>holiday</parents>
			<probabilities>0.2960618846694796 0.7039381153305204 0.9772727272727273 0.02272727272727273</probabilities>
		</cpt>
		<cpt id="windspeed">
			<state id="s1_below_0" />
			<state id="s2_0_0" />
			<state id="s3_0_up" />
			<probabilities>0.9259259259259258 0.07219878105954054 0.001875293014533521</probabilities>
		</cpt>
		<cpt id="temp">
			<state id="s1_below_0" />
			<state id="s2_0_0" />
			<state id="s3_0_up" />
			<parents>mnth</parents>
			<probabilities>0.1831124202258223 0.318605792832597 0.4982817869415807 0.1831124202258223 0.318605792832597 0.4982817869415807 0.1831124202258223 0.318605792832597 0.4982817869415807</probabilities>
		</cpt>
		<cpt id="hum">
			<state id="s1_below_0" />
			<state id="s2_0_0" />
			<state id="s3_0_up" />
			<parents>temp</parents>
			<probabilities>0.002023267577137076 0.8517956499747091 0.1461810824481538 0.002023267577137076 0.8517956499747091 0.1461810824481538 0.002023267577137076 0.8517956499747091 0.1461810824481538</probabilities>
		</cpt>
		<cpt id="weathersit">
			<state id="s1_below_1" />
			<state id="s2_1_2" />
			<state id="s3_2_up" />
			<parents>windspeed hum temp mnth</parents>
			<probabilities>0.1666666666666667 0.1666666666666667 0.6666666666666666 0.1666666666666667 0.1666666666666667 0.6666666666666666 0.1666666666666667 0.1666666666666667 0.6666666666666666 0.1666666666666667 0.1666666666666667 0.6666666666666666 0.1666666666666667 0.1666666666666667 0.6666666666666666 0.1666666666666667 0.1666666666666667 0.6666666666666666 0.1666666666666667 0.1666666666666667 0.6666666666666666 0.1666666666666667 0.1666666666666667 0.6666666666666666 0.1666666666666667 0.1666666666666667 0.6666666666666666 0.1666666666666667 0.1666666666666667 0.6666666666666666 0.1666666666666667 0.1666666666666667 0.6666666666666666 0.1666666666666667 0.1666666666666667 0.6666666666666666 0.1666666666666667 0.1666666666666667 0.6666666666666666 0.1666666666666667 0.1666666666666667 0.6666666666666666 0.1666666666666667 0.1666666666666667 0.6666666666666666 0.1666666666666667 0.1666666666666667 0.6666666666666666 0.1666666666666667 0.1666666666666667 0.6666666666666666 0.1666666666666667 0.1666666666666667 0.6666666666666666 0.1666666666666667 0.1666666666666667 0.6666666666666666 0.1666666666666667 0.1666666666666667 0.6666666666666666 0.1666666666666667 0.1666666666666667 0.6666666666666666 0.1666666666666667 0.1666666666666667 0.6666666666666666 0.1666666666666667 0.1666666666666667 0.6666666666666666 0.1666666666666667 0.1666666666666667 0.6666666666666666 0.1666666666666667 0.1666666666666667 0.6666666666666666 0.1666666666666667 0.1666666666666667 0.6666666666666666 0.1666666666666667 0.1666666666666667 0.6666666666666666 0.1666666666666667 0.1666666666666667 0.6666666666666666 0.1666666666666667 0.1666666666666667 0.6666666666666666 0.1666666666666667 0.1666666666666667 0.6666666666666666 0.1666666666666667 0.1666666666666667 0.6666666666666666 0.1666666666666667 0.1666666666666667 0.6666666666666666 0.1666666666666667 0.1666666666666667 0.6666666666666666 0.1666666666666667 0.1666666666666667 0.6666666666666666 0.1666666666666667 0.1666666666666667 0.6666666666666666 0.1666666666666667 0.1666666666666667 0.6666666666666666 0.1666666666666667 0.1666666666666667 0.6666666666666666 0.1666666666666667 0.1666666666666667 0.6666666666666666 0.1666666666666667 0.1666666666666667 0.6666666666666666 0.1666666666666667 0.1666666666666667 0.6666666666666666 0.1666666666666667 0.1666666666666667 0.6666666666666666 0.1666666666666667 0.1666666666666667 0.6666666666666666 0.1666666666666667 0.1666666666666667 0.6666666666666666 0.1666666666666667 0.1666666666666667 0.6666666666666666 0.1666666666666667 0.1666666666666667 0.6666666666666666 0.1666666666666667 0.1666666666666667 0.6666666666666666 0.1666666666666667 0.1666666666666667 0.6666666666666666 0.1666666666666667 0.1666666666666667 0.6666666666666666 0.1666666666666667 0.1666666666666667 0.6666666666666666 0.1666666666666667 0.1666666666666667 0.6666666666666666 0.1666666666666667 0.1666666666666667 0.6666666666666666 0.1666666666666667 0.1666666666666667 0.6666666666666666 0.1666666666666667 0.1666666666666667 0.6666666666666666 0.1666666666666667 0.1666666666666667 0.6666666666666666 0.1666666666666667 0.1666666666666667 0.6666666666666666 0.1666666666666667 0.1666666666666667 0.6666666666666666 0.1666666666666667 0.1666666666666667 0.6666666666666666 0.1666666666666667 0.1666666666666667 0.6666666666666666 0.1666666666666667 0.1666666666666667 0.6666666666666666 0.1666666666666667 0.1666666666666667 0.6666666666666666 0.1666666666666667 0.1666666666666667 0.6666666666666666 0.1666666666666667 0.1666666666666667 0.6666666666666666 0.1666666666666667 0.1666666666666667 0.6666666666666666 0.1666666666666667 0.1666666666666667 0.6666666666666666 0.1666666666666667 0.1666666666666667 0.6666666666666666 0.1666666666666667 0.1666666666666667 0.6666666666666666 0.1666666666666667 0.1666666666666667 0.6666666666666666 0.1666666666666667 0.1666666666666667 0.6666666666666666 0.1666666666666667 0.1666666666666667 0.6666666666666666 0.1666666666666667 0.1666666666666667 0.6666666666666666 0.1666666666666667 0.1666666666666667 0.6666666666666666 0.1666666666666667 0.1666666666666667 0.6666666666666666 0.1666666666666667 0.1666666666666667 0.6666666666666666 0.1666666666666667 0.1666666666666667 0.6666666666666666 0.1666666666666667 0.1666666666666667 0.6666666666666666 0.1666666666666667 0.1666666666666667 0.6666666666666666 0.1666666666666667 0.1666666666666667 0.6666666666666666 0.1666666666666667 0.1666666666666667 0.6666666666666666 0.1666666666666667 0.1666666666666667 0.6666666666666666 0.1666666666666667 0.1666666666666667 0.6666666666666666 0.1666666666666667 0.1666666666666667 0.6666666666666666</probabilities>
		</cpt>
		<cpt id="cnt">
			<state id="s1_below_3442" />
			<state id="s2_3442_5764" />
			<state id="s3_5764_up" />
			<parents>workingday weathersit</parents>
			<probabilities>0.3333333333333333 0.3333333333333333 0.3333333333333333 0.3333333333333333 0.3333333333333333 0.3333333333333333 0.3333333333333333 0.3333333333333333 0.3333333333333333 0.3333333333333333 0.3333333333333333 0.3333333333333333 0.3333333333333333 0.3333333333333333 0.3333333333333333 0.3333333333333333 0.3333333333333333 0.3333333333333333</probabilities>
		</cpt>
	</nodes>
	<extensions>
		<genie version="1.0" app="GeNIe 2.3.3603.0 ACADEMIC" name="day" faultnameformat="nodestate">
			<node id="mnth">
				<name>mnth</name>
				<interior color="e5f6f7" />
				<outline color="000080" />
				<font color="000000" name="Arial" size="8" />
				<position>786 305 858 353</position>
			</node>
			<node id="holiday">
				<name>holiday</name>
				<interior color="e5f6f7" />
				<outline color="000080" />
				<font color="000000" name="Arial" size="8" />
				<position>179 508 251 556</position>
			</node>
			<node id="workingday">
				<name>workingday</name>
				<interior color="e5f6f7" />
				<outline color="000080" />
				<font color="000000" name="Arial" size="8" />
				<position>179 354 251 402</position>
			</node>
			<node id="weathersit">
				<name>weathersit</name>
				<interior color="e5f6f7" />
				<outline color="000080" />
				<font color="000000" name="Arial" size="8" />
				<position>634 487 706 535</position>
			</node>
			<node id="temp">
				<name>temp</name>
				<interior color="e5f6f7" />
				<outline color="000080" />
				<font color="000000" name="Arial" size="8" />
				<position>658 261 730 309</position>
			</node>
			<node id="hum">
				<name>hum</name>
				<interior color="e5f6f7" />
				<outline color="000080" />
				<font color="000000" name="Arial" size="8" />
				<position>496 307 568 355</position>
			</node>
			<node id="windspeed">
				<name>windspeed</name>
				<interior color="e5f6f7" />
				<outline color="000080" />
				<font color="000000" name="Arial" size="8" />
				<position>428 495 500 543</position>
			</node>
			<node id="cnt">
				<name>cnt</name>
				<interior color="e5f6f7" />
				<outline color="000080" />
				<font color="000000" name="Arial" size="8" />
				<position>359 348 431 396</position>
			</node>
			<textbox>
				<caption>Input file: day.csv\nData rows: 731\nElapsed time: 0.125s\n\nLearning algorithm: Bayesian Search\nAlgorithm parameters:\nIterations: 20\nMax parent count: 8\nSample size: 50\nLink probability: 0.1\nPrior link probability: 0.001\nSeed: 0\nMax search time: 0\nUse accuracy as score: no\nNo background knowledge\n\nBest score in iteration 6: -3981.83\nEM Log Likelihood: -3987.44</caption>
				<font color="000000" name="Arial" size="8" />
				<position>10 206 187 458</position>
			</textbox>
		</genie>
	</extensions>
</smile>
