<?xml version="1.0" encoding="UTF-8"?>
<BIF VERSION="0.3"  xmlns="http://www.cs.ubc.ca/labs/lci/fopi/ve/XMLBIFv0_3"
	xmlns:xsi="http://www.w3.org/2001/XMLSchema-instance"
	xsi:schemaLocation="http://www.cs.ubc.ca/labs/lci/fopi/ve/XMLBIFv0_3 http://www.cs.ubc.ca/labs/lci/fopi/ve/XMLBIFv0_3/XMLBIFv0_3.xsd">
<NETWORK>
<NAME>Untitled</NAME>
<PROPERTY>detailed = </PROPERTY>
<PROPERTY>short = </PROPERTY>

<VARIABLE TYPE="nature">
	<NAME>WorkingDay</NAME>
	<OUTCOME>Y</OUTCOME>
	<OUTCOME>N</OUTCOME>
	<PROPERTY>position = (7187.40185546875, 5262.78125)</PROPERTY>
</VARIABLE>

<VARIABLE TYPE="nature">
	<NAME>Holiday</NAME>
	<OUTCOME>Y</OUTCOME>
	<OUTCOME>N</OUTCOME>
	<PROPERTY>position = (7194.78662109375, 5416.84375)</PROPERTY>
</VARIABLE>

<VARIABLE TYPE="nature">
	<NAME>cnt</NAME>
	<OUTCOME>&lt;3442</OUTCOME>
	<OUTCOME>3442-5764</OUTCOME>
	<OUTCOME>&gt;5764</OUTCOME>
	<PROPERTY>position = (7369.755859375, 5262.73486328125)</PROPERTY>
</VARIABLE>

<VARIABLE TYPE="nature">
	<NAME>hum</NAME>
	<OUTCOME>&lt;0.1</OUTCOME>
	<OUTCOME>0.1-0.8</OUTCOME>
	<OUTCOME>&gt;0.8</OUTCOME>
	<PROPERTY>position = (7402.51953125, 5055.94091796875)</PROPERTY>
</VARIABLE>

<VARIABLE TYPE="nature">
	<NAME>temp</NAME>
	<OUTCOME>&lt;0.3</OUTCOME>
	<OUTCOME>0.3-0.5</OUTCOME>
	<OUTCOME>&gt;0.5</OUTCOME>
	<PROPERTY>position = (7629.49365234375, 5047.15625)</PROPERTY>
</VARIABLE>

<VARIABLE TYPE="nature">
	<NAME>winspeed</NAME>
	<OUTCOME>&lt;0.3</OUTCOME>
	<OUTCOME>0.3-0.5</OUTCOME>
	<OUTCOME>&gt;0.5</OUTCOME>
	<PROPERTY>position = (7406.31640625, 5409.935546875)</PROPERTY>
</VARIABLE>

<VARIABLE TYPE="nature">
	<NAME>weathersit</NAME>
	<OUTCOME>&lt;1</OUTCOME>
	<OUTCOME>1-2</OUTCOME>
	<OUTCOME>&gt;2</OUTCOME>
	<PROPERTY>position = (7634.23388671875, 5411.12158203125)</PROPERTY>
</VARIABLE>

<VARIABLE TYPE="nature">
	<NAME>Month</NAME>
	<OUTCOME>&lt;2</OUTCOME>
	<OUTCOME>2-8</OUTCOME>
	<OUTCOME>&gt;8</OUTCOME>
	<PROPERTY>position = (7831.59814453125, 5098.45068359375)</PROPERTY>
</VARIABLE>

<VARIABLE TYPE="decision">
	<NAME>Should I go for a run ?</NAME>
	<OUTCOME>T</OUTCOME>
	<OUTCOME>F</OUTCOME>
	<PROPERTY>position = (7186.0, 5154.0)</PROPERTY>
</VARIABLE>

<VARIABLE TYPE="utility">
	<NAME>Node 9</NAME>
	<PROPERTY>position = (7114.0, 5025.0)</PROPERTY>
</VARIABLE>

<DEFINITION>
	<FOR>WorkingDay</FOR>
	<GIVEN>Holiday</GIVEN>
	<TABLE>0.022 0.978 0.704 0.296</TABLE>
</DEFINITION>

<DEFINITION>
	<FOR>Holiday</FOR>
	<TABLE>0.971 0.029</TABLE>
</DEFINITION>

<DEFINITION>
	<FOR>cnt</FOR>
	<GIVEN>WorkingDay</GIVEN>
	<GIVEN>weathersit</GIVEN>
	<TABLE>0.3333 0.3333 0.3334 0.3333 0.3333 0.3334 0.3333 0.3333 0.3334 0.3333 0.3333 0.3334 0.3333 0.3333 0.3334 0.3333 0.3333 0.3334</TABLE>
</DEFINITION>

<DEFINITION>
	<FOR>hum</FOR>
	<GIVEN>temp</GIVEN>
	<TABLE>0.002 0.852 0.146 0.002 0.852 0.146 0.002 0.852 0.146</TABLE>
</DEFINITION>

<DEFINITION>
	<FOR>temp</FOR>
	<GIVEN>Month</GIVEN>
	<TABLE>0.183 0.319 0.498 0.183 0.319 0.498 0.183 0.319 0.498</TABLE>
</DEFINITION>

<DEFINITION>
	<FOR>winspeed</FOR>
	<TABLE>0.926 0.072 0.002</TABLE>
</DEFINITION>

<DEFINITION>
	<FOR>weathersit</FOR>
	<GIVEN>hum</GIVEN>
	<GIVEN>temp</GIVEN>
	<GIVEN>winspeed</GIVEN>
	<GIVEN>Month</GIVEN>
	<TABLE>0.167 0.167 0.666 0.167 0.167 0.666 0.167 0.167 0.666 0.167 0.167 0.666 0.167 0.167 0.666 0.167 0.167 0.666 0.167 0.167 0.666 0.167 0.167 0.666 0.167 0.167 0.666 0.167 0.167 0.666 0.167 0.167 0.666 0.167 0.167 0.666 0.167 0.167 0.666 0.167 0.167 0.666 0.167 0.167 0.666 0.167 0.167 0.666 0.167 0.167 0.666 0.167 0.167 0.666 0.167 0.167 0.666 0.167 0.167 0.666 0.167 0.167 0.666 0.167 0.167 0.666 0.167 0.167 0.666 0.167 0.167 0.666 0.167 0.167 0.666 0.167 0.167 0.666 0.167 0.167 0.666 0.167 0.167 0.666 0.167 0.167 0.666 0.167 0.167 0.666 0.167 0.167 0.666 0.167 0.167 0.666 0.167 0.167 0.666 0.167 0.167 0.666 0.167 0.167 0.666 0.167 0.167 0.666 0.167 0.167 0.666 0.167 0.167 0.666 0.167 0.167 0.666 0.167 0.167 0.666 0.167 0.167 0.666 0.167 0.167 0.666 0.167 0.167 0.666 0.167 0.167 0.666 0.167 0.167 0.666 0.167 0.167 0.666 0.167 0.167 0.666 0.167 0.167 0.666 0.167 0.167 0.666 0.167 0.167 0.666 0.167 0.167 0.666 0.167 0.167 0.666 0.167 0.167 0.666 0.167 0.167 0.666 0.167 0.167 0.666 0.167 0.167 0.666 0.167 0.167 0.666 0.167 0.167 0.666 0.167 0.167 0.666 0.167 0.167 0.666 0.167 0.167 0.666 0.167 0.167 0.666 0.167 0.167 0.666 0.167 0.167 0.666 0.167 0.167 0.666 0.167 0.167 0.666 0.167 0.167 0.666 0.167 0.167 0.666 0.167 0.167 0.666 0.167 0.167 0.666 0.167 0.167 0.666 0.167 0.167 0.666 0.167 0.167 0.666 0.167 0.167 0.666 0.167 0.167 0.666 0.167 0.167 0.666 0.167 0.167 0.666 0.167 0.167 0.666 0.167 0.167 0.666 0.167 0.167 0.666 0.167 0.167 0.666</TABLE>
</DEFINITION>

<DEFINITION>
	<FOR>Month</FOR>
	<TABLE>0.579 0.139 0.282</TABLE>
</DEFINITION>

<DEFINITION>
	<FOR>Should I go for a run ?</FOR>
	<GIVEN>WorkingDay</GIVEN>
	<GIVEN>temp</GIVEN>
	<GIVEN>winspeed</GIVEN>
	<TABLE>1 1 1 1 1 1 1 1 1 0 0 1 0 0 1 0 0 1</TABLE>
</DEFINITION>

<DEFINITION>
	<FOR>Node 9</FOR>
	<GIVEN>Should I go for a run ?</GIVEN>
	<TABLE>1.0 1.0</TABLE>
</DEFINITION>
</NETWORK>
</BIF>
